net
{
	propagationenginegenerator1791944048146838126L = "edu.ucla.belief.approx.BeliefPropagationSettings@5faa0bc8";
	recoveryenginegenerator6944530267470113528l = "edu.ucla.util.SettingsImpl@557b2c0b";
	node_size = (130.0 55.0);
	huginenginegenerator3061656038650325130L = "edu.ucla.belief.inference.JoinTreeSettings@11b40da6";
}

node Age
{
	states = ("Between16and21" "Between22and64" "Over65" );
	position = (349 -76);
	DSLxEXTRA_DEFINITIONxMANDATORY = "false";
	diagnosistype = "AUXILIARY";
	label = "Age";
	DSLxPOSITIONxWIDTH = "70";
	DSLxEXTRA_DEFINITIONxDIAGNOSIS_TYPE = "AUXILIARY";
	excludepolicy = "include whole CPT";
	DSLxTYPE = "CPT";
	DSLxPOSITIONxHEIGHT = "30";
	DSLxEXTRA_DEFINITIONxRANKED = "false";
	ismapvariable = "false";
	ID = "Age";
}
node Reliability
{
	states = ("Reliable" "Unreliable" );
	position = (347 -305);
	DSLxEXTRA_DEFINITIONxMANDATORY = "false";
	diagnosistype = "AUXILIARY";
	label = "Reliability";
	DSLxPOSITIONxWIDTH = "70";
	DSLxEXTRA_DEFINITIONxDIAGNOSIS_TYPE = "AUXILIARY";
	excludepolicy = "include whole CPT";
	DSLxTYPE = "CPT";
	DSLxPOSITIONxHEIGHT = "30";
	DSLxEXTRA_DEFINITIONxRANKED = "false";
	ismapvariable = "false";
	ID = "Reliability";
}
node Assets
{
	states = ("High" "Medium" "Low" );
	position = (154 -305);
	DSLxEXTRA_DEFINITIONxMANDATORY = "false";
	diagnosistype = "AUXILIARY";
	label = "Assets";
	DSLxPOSITIONxWIDTH = "70";
	DSLxEXTRA_DEFINITIONxDIAGNOSIS_TYPE = "AUXILIARY";
	excludepolicy = "include whole CPT";
	DSLxTYPE = "CPT";
	DSLxPOSITIONxHEIGHT = "30";
	DSLxEXTRA_DEFINITIONxRANKED = "false";
	ismapvariable = "false";
	ID = "Worth";
}
node DebtIncomeRatio
{
	states = ("Low" "High" );
	position = (-9 -61);
	DSLxEXTRA_DEFINITIONxMANDATORY = "false";
	diagnosistype = "AUXILIARY";
	label = "Ratio of Debts To Income";
	DSLxPOSITIONxWIDTH = "81";
	DSLxEXTRA_DEFINITIONxDIAGNOSIS_TYPE = "AUXILIARY";
	excludepolicy = "include whole CPT";
	DSLxTYPE = "CPT";
	DSLxPOSITIONxHEIGHT = "30";
	DSLxEXTRA_DEFINITIONxRANKED = "false";
	ismapvariable = "false";
	ID = "RatioDebInc";
}
node CreditWorthiness
{
	states = ("Positive" "Negative" );
	position = (158 -391);
	DSLxEXTRA_DEFINITIONxMANDATORY = "false";
	diagnosistype = "AUXILIARY";
	label = "Credit Worthiness";
	DSLxPOSITIONxWIDTH = "100";
	DSLxEXTRA_DEFINITIONxDIAGNOSIS_TYPE = "AUXILIARY";
	excludepolicy = "include whole CPT";
	DSLxTYPE = "CPT";
	DSLxPOSITIONxHEIGHT = "30";
	DSLxEXTRA_DEFINITIONxRANKED = "false";
	ismapvariable = "false";
	ID = "CreditWorthiness";
}
node FutureIncome
{
	states = ("Promising" "Not_promising" );
	position = (-20 -386);
	DSLxEXTRA_DEFINITIONxMANDATORY = "false";
	diagnosistype = "AUXILIARY";
	label = "Future Income";
	DSLxPOSITIONxWIDTH = "90";
	DSLxEXTRA_DEFINITIONxDIAGNOSIS_TYPE = "AUXILIARY";
	excludepolicy = "include whole CPT";
	DSLxTYPE = "CPT";
	DSLxPOSITIONxHEIGHT = "30";
	DSLxEXTRA_DEFINITIONxRANKED = "false";
	ismapvariable = "false";
	ID = "FutureIncome";
}
node Income
{
	states = ("High" "Medium" "Low" );
	position = (-16 -208);
	DSLxEXTRA_DEFINITIONxMANDATORY = "false";
	diagnosistype = "AUXILIARY";
	label = "Income";
	DSLxPOSITIONxWIDTH = "83";
	DSLxEXTRA_DEFINITIONxDIAGNOSIS_TYPE = "AUXILIARY";
	excludepolicy = "include whole CPT";
	DSLxTYPE = "CPT";
	DSLxPOSITIONxHEIGHT = "30";
	DSLxEXTRA_DEFINITIONxRANKED = "false";
	ismapvariable = "false";
	ID = "Profession";
}
node PaymentHistory
{
	states = ("Excellent" "Acceptable" "Unacceptable" );
	position = (158 -210);
	DSLxEXTRA_DEFINITIONxMANDATORY = "false";
	diagnosistype = "AUXILIARY";
	label = "Payment History";
	DSLxPOSITIONxWIDTH = "93";
	DSLxEXTRA_DEFINITIONxDIAGNOSIS_TYPE = "AUXILIARY";
	excludepolicy = "include whole CPT";
	DSLxTYPE = "CPT";
	DSLxPOSITIONxHEIGHT = "30";
	DSLxEXTRA_DEFINITIONxRANKED = "false";
	ismapvariable = "false";
	ID = "PaymentHistory";
}
potential ( Age | )
{
	data = (	0.3333333333333333	0.3333333333333333	0.3333333333333333	);
}
potential ( Reliability | PaymentHistory Age )
{
	data = (((	0.7	0.3	)
		(	0.8	0.2	)
		(	0.9	0.1	))
		((	0.33	0.67	)
		(	0.35	0.65	)
		(	0.4	0.6	))
		((	0.1	0.9	)
		(	0.2	0.8	)
		(	0.3	0.7	)));
}
potential ( Assets | Income )
{
	data = ((	0.5	0.3	0.2	)
		(	0.25	0.5	0.25	)
		(	0.05	0.15	0.8	));
}
potential ( DebtIncomeRatio | )
{
	data = (	0.5	0.5	);
}
potential ( CreditWorthiness | Reliability DebtIncomeRatio FutureIncome )
{
	data = ((((	0.9	0.1	)
		(	0.8	0.2	))
		((	0.8	0.2	)
		(	0.7	0.3	)))
		(((	0.7	0.3	)
		(	0.2	0.8	))
		((	0.2	0.8	)
		(	0.1	0.9	))));
}
potential ( FutureIncome | Income Assets )
{
	data = (((	0.9	0.1	)
		(	0.8	0.2	)
		(	0.5	0.5	))
		((	0.7	0.3	)
		(	0.5	0.5	)
		(	0.3	0.7	))
		((	0.5	0.5	)
		(	0.3	0.7	)
		(	0.1	0.9	)));
}
potential ( Income | )
{
	data = (	0.3333333333333333	0.3333333333333333	0.3333333333333333	);
}
potential ( PaymentHistory | Age )
{
	data = ((	0.1	0.3	0.6	)
		(	0.3333333333333333	0.3333333333333333	0.3333333333333333	)
		(	0.7	0.19999999999999998	0.09999999999999999	));
}
